{
  "layerArray": [
    784,
    128,
    12,
    5
  ],
  "weightMatrix": [
    {
      "rows": 128,
      "cols": 784,
      "data": [
        [
          0.4054074333386337,
          0.855065624636639,
          -0.45390031166571854,
          0.5016289731771466,
          0.2525756708632292,
          -0.3561820517876573,
          0.1592532157623041,
          -0.8354103983295125,
          -0.7740162335161798,
          -0.41402500589375,
          0.16925806018900635,
          0.4111600909802551,
          -0.5669555455504591,
          0.9534040631533838,
          0.978034064491939,
          0.8478755762269099,
          0.5179030485368648,
          -0.5686480757027672,
          0.5795326822643196,
          0.6522310212189191,
          0.3141836387996171,
          -0.80536618490222,
          -0.6040829397248788,
          -0.5546138107062464,
          0.25598828067904345,
          -0.8834498904870633,
          0.5570210007827785,
          -0.19313033029700577,
          0.7681494377070388,
          -0.04751110356897126,
          0.022532725108370233,
          0.11024533685674243,
          0.08256972435443588,
          -0.4076139187730363,
          0.564643153006517,
          -0.9323669567346773,
          0.5960393069742254,
          -0.8157866415891575,
          -0.3710158957486378,
          -0.582442177094268,
          0.5849730214697835,
          -0.24434766250616535,
          -0.033286614444407725,
          -0.40469542964078675,
          0.6437775845730167,
          -0.294710930367331,
          0.8754676507622134,
          -0.9383023551914218,
          0.4754129156382416,
          0.12118463659598522,
          -0.31932130039493645,
          -0.0750330250894291,
          0.8638052491735477,
          0.16786552735960347,
          -0.47510642487671184,
          -0.5601129698426841,
          -0.5798200828365832,
          -0.21846522990720496,
          -0.32191125053102787,
          0.9283030572025176,
          -0.8061223671419602,
          0.9043670420129785,
          -0.46203858908688955,
          0.25647396138448686,
          0.15890735061962594,
          -0.10649514513426826,
          -0.04232677624285673,
          -1.2641252406447083,
          -1.3135628427693535,
          -0.21494085318679354,
          -0.773899913270161,
          0.6565531833247381,
          -0.9318367979588084,
          -0.29856986449167405,
          -0.5683709553864337,
          0.1917260067383591,
          -1.112823176622783,
          -1.3988320032335626,
          -0.19969784689232636,
          0.09619496214161423,
          -0.07764887309525795,
          -0.8184711835443167,
          -0.25628071303355426,
          0.6769391517850423,
          -0.11890268948514437,
          -0.20291930400406333,
          0.706425903347001,
          -0.8879958553148278,
          0.5697198202317345,
          0.596434485369649,
          -0.029172639527786825,
          0.3261860524317488,
          -0.5523634782440853,
          -0.5190835810762768,
          -0.3300751648340167,
          0.6258627609556158,
          -0.4605027687628975,
          0.020067637815403744,
          0.7418880345539236,
          -0.4037357708083358,
          -1.0596862502312798,
          -0.9276961417904886,
          -0.257090138056164,
          -1.833812717099157,
          -0.7024286917145147,
          0.11716574784564047,
          0.4167648029493557,
          -0.041127415667460775,
          -0.7604599148935466,
          -0.84574584897746,
          0.6196477307335839,
          -0.2637017759871081,
          -0.274285840292976,
          -0.347995920398128,
          -0.6326556145357257,
          0.07236814993571807,
          -0.10875200108144861,
          -0.4506762801702464,
          -1.0601004559013787,
          0.11550672627685807,
          -1.1228220121588726,
          0.19984663513899673,
          -0.1981129842572303,
          0.5803917403327695,
          -0.1210105398538536,
          -0.37260067581900996,
          0.3284269220397172,
          -0.507870080759905,
          0.6588324134861184,
          -0.11366591902860695,
          -0.9126314272411222,
          0.019782140270819305,
          0.7376761897864241,
          -0.3915767705889691,
          -0.8009674778067749,
          -0.5381977688555345,
          -0.23091280170890793,
          -0.057589673970727714,
          -0.6945255229805487,
          0.10329576513072203,
          0.9558301721479494,
          -0.45341916141465965,
          -0.4453374833016522,
          -0.6132949035788787,
          0.5741436652112386,
          -0.997872876846531,
          -2.5799868719711725,
          -0.02178206274165782,
          1.0560711088130303,
          -0.12796998520482653,
          0.3677100811465047,
          0.11796903884196638,
          -0.5852445021510713,
          0.4985418187147543,
          0.7479323500187881,
          -0.3987684439012684,
          0.544524699461525,
          -1.4926428063939299,
          0.10553541692369717,
          -0.8469579930236779,
          0.05376763635017051,
          -2.102577696830922,
          -0.8042107157421208,
          -1.2871072855816292,
          0.25038637924399015,
          -0.2391771879605373,
          -0.5519576145712297,
          -0.7065807805132698,
          -0.38137666511210044,
          -0.21920727815814844,
          -1.389091013479836,
          -1.0789052808790822,
          0.08540263094761906,
          -0.1422750876849645,
          -0.012190171845467255,
          -1.294258438288651,
          -1.3463648964684194,
          0.8411770865799052,
          1.022269193165629,
          0.6799333874116616,
          1.3195393669756226,
          0.8619211348440973,
          0.2714890462289281,
          0.536634944079291,
          1.0016467058238636,
          0.7643735548888527,
          -0.29722887969564316,
          0.10206239479421503,
          -0.21287498398302893,
          0.32618333625842216,
          -1.002772586579344,
          0.6352604370962689,
          0.25020044604791936,
          -2.2824255396096325,
          0.5259254588858044,
          -0.20932658664209125,
          -0.49474384748772327,
          0.6284494306088342,
          -2.2515486329339174,
          0.31074192278366286,
          0.1642534612092561,
          -0.1056804637670657,
          -0.47768139224771444,
          0.20799444874534329,
          -0.358492761998709,
          0.4240002830040188,
          -1.038129374786315,
          0.4267192627574453,
          -0.1304992101054606,
          0.5200468119211921,
          -0.9691186323213512,
          -0.8754951986749454,
          0.702388055359104,
          -0.4782411696064937,
          -1.0540091328750347,
          0.2551098165900038,
          -1.23001602666609,
          0.9706288339677188,
          -1.2638089977261302,
          -0.5481447877440587,
          0.1095659234705549,
          -0.2973255156050198,
          -0.7633065655756166,
          0.5993715389787524,
          -0.8583856217308274,
          -0.32442652352254386,
          -0.5789678060458634,
          0.5886468396213714,
          0.2646339989432159,
          -0.037584355436125365,
          -0.06510433526178808,
          -0.15245498511615102,
          0.9808845394817293,
          0.5577781728966593,
          0.9907232448432428,
          0.3084188746756612,
          -0.36226209716847346,
          2.277338120454878,
          0.6613894120305203,
          1.1709433503573636,
          0.40128472963884754,
          1.6695908442886398,
          0.24994648681613738,
          0.8129870537116972,
          -0.21928388963485956,
          1.2153193484634874,
          0.0597426002507196,
          0.3546803907259589,
          -1.5533875263356964,
          0.16493123598777285,
          0.09423568178132102,
          0.07053816930628276,
          -0.4393948886667389,
          0.4511984503122344,
          -1.2644400471590869,
          -0.33836657328444497,
          0.034532633987897784,
          -0.6066376737705005,
          0.6925335652833817,
          -0.3775584558046513,
          1.1269069599450718,
          0.6235311628177143,
          0.23485325755405878,
          0.8465675057004046,
          0.2717346774570623,
          1.0724149437950081,
          2.066356025152526,
          0.5111867729769669,
          1.5689245269218974,
          0.6327722730432022,
          0.4127109972885149,
          -0.31303820878675553,
          -0.233590005200812,
          1.7844182989597717,
          -0.1643916040764403,
          1.7098316129732467,
          0.06655851910035737,
          -1.2259411112915028,
          -0.3282855059547036,
          -0.5771967621060456,
          0.7418946596535752,
          0.13300167949016828,
          -0.8886773067506829,
          -1.1417440278632016,
          0.9470191472968835,
          -0.170019105010423,
          0.2911803549703767,
          0.5958005544206697,
          0.8076409243967387,
          0.32397014663450424,
          -0.7187082512522603,
          0.015242133716692554,
          0.832777977858043,
          0.13167172866181864,
          1.2605400165255298,
          1.9672849031687143,
          1.540225193353981,
          0.1371282207041451,
          -0.007690672430374165,
          1.5701173780931141,
          -0.7238668383023378,
          0.5925533477544455,
          -0.4912030247517316,
          0.12666192328355325,
          -1.3158562633122222,
          -1.9662809374265335,
          0.3377823600972283,
          0.18730390044509315,
          -0.09161441726601716,
          -0.08623466706793437,
          -0.742487258811305,
          1.2431455975216659,
          1.764660766949189,
          -0.7389009938510354,
          -0.3440645421024055,
          0.17898045260786863,
          -0.016162461722272727,
          2.210352330733884,
          0.05246092816339928,
          0.2334705754956595,
          1.01327170256694,
          0.8469559746273552,
          0.7059775101334679,
          0.6220128870154382,
          0.8358102724609877,
          0.9559677879739218,
          -0.0643141725219928,
          0.6578370425100729,
          -0.26626413131169946,
          -0.10733791184128659,
          0.7790747087250173,
          1.285251703342943,
          -0.30860870719826783,
          1.1076632166821494,
          -0.5431685784624936,
          -0.7107024383938483,
          -0.6219489135648142,
          0.17585099106523483,
          -0.5138881264295585,
          0.6438470523944207,
          0.8780876441515103,
          0.01938262709902601,
          0.31329044123724825,
          0.24237571828415452,
          -0.9478341554936559,
          2.34663176013807,
          0.7811640939562168,
          1.6918440381577096,
          1.5149540852348242,
          0.49129426271368565,
          1.2259803703552579,
          0.5548929441869217,
          0.33227778574923605,
          1.5539309920218107,
          0.2787388233705318,
          0.9945624445539858,
          0.17681784016327137,
          1.2535278065736508,
          1.0972341561063312,
          -0.44550008573143607,
          0.48626545766100326,
          1.8526093008952538,
          0.5991243711591112,
          -0.7859274895391617,
          0.472055058673591,
          -0.7440687345479353,
          -0.06705960767347027,
          0.5623336677010153,
          1.4273117726510542,
          -1.4354555443513213,
          -0.48206238173436017,
          -0.41497150458325244,
          -0.39063609169586233,
          -0.004854887489253995,
          0.5327896532803957,
          -1.3391853807188552,
          0.25469866229682087,
          1.2495895148547613,
          -0.17640173421509114,
          -0.3193269211197588,
          -0.5054918102561601,
          0.9920809689743944,
          0.2155318899533967,
          1.0535710354952499,
          0.4389951529137524,
          0.9059094839768908,
          0.6635524612580327,
          0.15613915307717763,
          0.41172433464415253,
          2.105761184745668,
          0.7682300981680501,
          0.06996077893221564,
          -0.235345114716782,
          -0.0837756131552938,
          -0.14235446277692948,
          -0.1742231212791054,
          -0.717436008825111,
          -1.2700055070010974,
          -0.7410138214603802,
          -0.4937320613708476,
          -0.1635762397691733,
          -0.5405199949913159,
          0.0907822852288698,
          0.30602194586494785,
          -0.39020415476269066,
          1.4531840517142744,
          -0.9552270346430534,
          1.390741241403714,
          0.62509306184696,
          0.9609443324437357,
          -0.648343810542163,
          0.6284992233816691,
          -1.049841334030309,
          0.6356798541395176,
          -0.37438065468390774,
          0.4009201680510168,
          -1.120173927648889,
          1.3068570443141698,
          0.5720621539976083,
          0.257062077227987,
          -0.4340049906875363,
          -0.27293689034562574,
          0.22203145783919778,
          -0.314101811645701,
          -0.3182520273594461,
          -2.2594901018445603,
          -0.3091809697006348,
          1.1325127175482153,
          -1.0831426640537523,
          0.24700320167120357,
          1.3127148861865772,
          2.2713610684817724,
          0.4963715391160079,
          -1.0829764997636788,
          -0.31522860548221965,
          0.920325519752676,
          -1.6315954123452037,
          -0.7626028004909778,
          -0.23342340037821704,
          -0.014168852823952983,
          -0.48185512108186435,
          1.34173617400431,
          0.5699538928407283,
          0.4487989111624589,
          0.10629475100151674,
          2.0224891451198244,
          0.2848236117054568,
          0.05579669477801641,
          0.08437696994789512,
          0.1486791660405533,
          0.672457844607501,
          0.07924946384025401,
          1.4612368284097454,
          0.43827919201301324,
          -0.19818704688607522,
          1.4976085459805566,
          -0.3525688922164245,
          -0.8542821384184339,
          2.7351634082395595,
          -0.6675466934465162,
          0.8032685328565777,
          1.5283084248300658,
          -0.45838200359186815,
          1.0038703277414902,
          -0.17083503121161606,
          1.3893867056750677,
          -1.1772382513806776,
          1.3708022138555533,
          -1.4851928979735944,
          -0.3750867623917951,
          -0.3800540582225758,
          -0.44470334546298496,
          -1.142534125386155,
          1.3119413456123068,
          -0.43355352827054716,
          0.6792799032949466,
          -0.02258756439409426,
          0.9382353610751628,
          -1.0089480957705355,
          0.8402600438319268,
          0.9636223534473155,
          -0.17352057905076654,
          0.4330369240114024,
          0.5328283009838892,
          -0.6140414318650621,
          0.4488451958028344,
          1.1229028080422288,
          -0.013854952634767785,
          0.07606171782917336,
          1.5117954547746288,
          1.6648616987126932,
          1.2597963078602077,
          1.1240114349487946,
          -0.13733860944937515,
          1.6027026534222617,
          0.5336973592194297,
          0.2531132992683671,
          -0.05453124951261766,
          0.6534607607380702,
          0.6774227250227943,
          -0.6026946187588528,
          1.1442895602915453,
          0.9786853546465415,
          0.26825919252493513,
          0.09563990233478092,
          -0.9726306964458069,
          -1.839537635685075,
          0.5049015444823065,
          -0.47704182482260843,
          0.19992023345123483,
          1.0524014591691626,
          1.341110632066367,
          0.4589289925081293,
          -0.7615161618076283,
          0.3839065362419363,
          -0.45678487279427743,
          -0.5524336123769669,
          0.18913535251324967,
          1.3828643168011236,
          0.9325888540083033,
          1.4346992068681206,
          0.419231618957301,
          0.2079934468998789,
          1.2616557937910746,
          1.2811883854117943,
          -0.20235553232623965,
          -0.5834718121365614,
          0.16934148902496549,
          0.05026024276033106,
          0.0622274701015617,
          0.9098797292731584,
          0.017146442368782377,
          -0.9078220151880414,
          0.12383819198312196,
          -1.7472113295428215,
          0.1358961379013013,
          0.6758484809483233,
          -1.6600359862197225,
          1.1378435407834178,
          -1.7668117627336617,
          -0.26521489968205686,
          -1.2565820797482503,
          -0.7512675445758423,
          -0.002851148459267005,
          0.17379416233127523,
          -0.07926451795324631,
          -1.1342022189143564,
          -0.7505911388670838,
          -0.007868500004159939,
          -0.8421041438971064,
          0.9223323428857448,
          -0.06169964942152496,
          0.2876760798707032,
          -1.0159478220281564,
          0.027753143638021196,
          -0.9301449292920848,
          -1.6065888443472338,
          -0.4002519273242269,
          0.7419671918073991,
          0.4169128752708171,
          -0.11422655473662457,
          0.28108654150364476,
          0.08145979793340742,
          -1.0298540865036687,
          -1.2307610676409035,
          -0.3474628477769251,
          0.7820880479380284,
          -1.1438351769397674,
          -0.028192036266366648,
          -0.816124109929773,
          -0.22676569609430003,
          -0.19600940269714207,
          -0.3850039675970669,
          -0.1565176637180965,
          0.638649129055505,
          -1.7159994572071378,
          -0.38220320360485743,
          -0.30048640573599467,
          -0.9182788888274255,
          -0.15995344448148746,
          -0.5003608030557365,
          -1.4381277352029942,
          0.49808183438490605,
          0.31561017779011424,
          -1.5634177824116124,
          -0.3816701792460753,
          -0.01629708510326555,
          0.8063809556467825,
          0.8845788053264712,
          -0.049022093680114676,
          -0.8323675388251088,
          0.13009177961018784,
          0.4488090608012734,
          -1.5654362576945835,
          0.07144917045616764,
          -0.2987935353459317,
          -2.085553585533001,
          -1.687242513844876,
          -0.8375218171484716,
          -1.1305681567695087,
          -0.2445227704947837,
          0.22744882712397432,
          0.20548944416344855,
          -0.9108401847397218,
          -0.5130025765980991,
          -1.4814045683672157,
          1.030166212094718,
          0.16017538712269172,
          0.7427816097489597,
          0.2123972294266364,
          -0.6946267628841083,
          -0.5544303878597011,
          0.7656718245578984,
          -1.3186143091825138,
          0.880824154162112,
          0.6127346707316588,
          0.2990163793691929,
          0.27828092473914134,
          -1.4446404283694927,
          -0.2274724858305567,
          -1.0016264117463596,
          -0.24637097967665716,
          0.9136557742528628,
          0.07455271265408664,
          -0.22848911594492421,
          0.10437835009246571,
          0.08641796814933916,
          -0.0056215852442785584,
          0.5390970862470369,
          -0.92265624263626,
          0.504614345627049,
          -1.9304195362163818,
          1.0665980570029163,
          1.516920730990836,
          -0.0836814017596488,
          -0.04275724237861413,
          1.225071424664539,
          0.09859231513500295,
          -0.9645425794714951,
          -0.3654503235194253,
          -0.010147534668047981,
          -0.6336041797249699,
          -0.6216257694020819,
          -0.7251715265492784,
          0.937140200953666,
          0.025336347432860507,
          -0.3269095720129793,
          -0.14948120634739656,
          -0.8694122865363153,
          -0.35000174786050053,
          -1.1589756177692945,
          -0.39155118112535536,
          0.3633766615967323,
          -0.902196765262777,
          -0.2389105949840687,
          -0.7256505431517183,
          -0.8598501927605644,
          -1.149991842168041,
          0.7747268296228565,
          -0.4381774258446495,
          -0.1835191834493529,
          0.5970621447964093,
          -0.6500649285418023,
          0.08615868235123253,
          -0.5597707491779856,
          0.292892847115118,
          0.06282718457676584,
          0.4788321416314746,
          -0.6521005230153134,
          -0.8195879030534317,
          -0.5799826662271461,
          -0.7152454557565875,
          -0.8795799921788037,
          0.4261721648213195,
          0.470134707430051,
          -0.6374470510230567,
          0.45009593345133186,
          -0.975515639663303,
          -0.5626009976953827,
          0.7768476592329105,
          -0.6013007992217906,
          -0.6791276184147718,
          -0.5635452422661521,
          -1.053384457704544,
          -0.7674999219573583,
          0.1713300299776598,
          -0.3619774641477473,
          -1.1280134029785587,
          -0.03438488426816989,
          -1.1970469395040104,
          -0.49755639843391314,
          0.2638817803423698,
          0.718224105386615,
          0.5363529110976484,
          -0.504825620305814,
          0.3556664946944057,
          0.488367304846981,
          0.009615766737810448,
          0.8456088278387925,
          -0.4778311674338185,
          0.17003780152706272,
          -0.8729441693627686,
          -0.6809552184651038,
          0.006195618583636198,
          -0.3060642199413038,
          -0.6906110602587071,
          0.130227043593149,
          0.4964514204292725,
          -0.9795111808195991,
          0.1487346228063769,
          -1.0844640536384285,
          -0.907513020802894,
          -0.7801025411612541,
          0.44658573493005027,
          0.06879982433794617,
          -0.6595068617068215,
          -0.8139880126668249,
          -0.9132367930138321,
          -1.064525051145342,
          -0.6118439888810757,
          -0.8141065306314653,
          -0.3523780335174049,
          -0.5874558070573883,
          0.03815203997188045,
          0.6828368405379479,
          0.08716092131383715,
          0.09706853196990117,
          -0.32414714821184987,
          0.7665613227878567,
          -0.7035332755833181,
          -0.7878189415026062,
          -0.2120195980871067,
          -0.26935669552149966,
          -0.8984436489158423,
          0.3589575258376585,
          -0.015841516705528136,
          -0.6500258475964866,
          0.6091443568413681,
          0.38683398132054636,
          -0.18124649979512775,
          -0.1933203357692821,
          -0.9427866853095765,
          0.6172441682516623,
          -0.5343680495474148,
          0.2381504577488749,
          0.8613458384157218,
          -0.5749980748026231,
          0.7150361571721078,
          0.9498892020991203,
          -0.7750272165565182,
          -0.5695007273280432,
          -0.5606827550403737,
          0.7025212857884879,
          -0.7564213285427477,
          -0.19387754617940178,
          0.5522307741260284,
          -0.9892309597897291,
          -0.09881408085512522,
          0.28590079269887525,
          0.19687063893456358,
          0.6653702040263747,
          -0.9983801132297301,
          -0.3675845806233897,
          -0.17500013730623376,
          -0.6303334029134082,
          -0.9899844457369267,
          -0.5482035714802218,
          0.19391624580897782,
          -0.5867830311096336,
          0.5713969218401567,
          -0.4079139921276984,
          -0.5170057423222016,
          -0.9736658434652274,
          0.22742525075025188,
          0.7183259182528747,
          0.5163143919523279,
          -0.8617379587737544,
          -0.7534497266948206,
          -0.5496272522952812,
          -0.8692056624316749,
          0.8951677936593287,
          0.46388944358406903,
          0.20852394706407207,
          -0.7523943796921682
        ],
        [
          0.5175898738717111,
          0.12996084738927927,
          0.12246891605825239,
          -0.9238724497226563,
          0.3588941506022647,
          0.23629074770778402,
          0.45741570858252967,
          -0.05657902691641459,
          -0.9282787336239124,
          -0.7515036034067322,
          -0.9748847281211672,
          -0.8440401413893062,
          0.44539705827732234,
          -0.8966511117236093,
          -0.24563864924494316,
          -0.9654356447543231,
          0.4916424397829746,
          0.10701136960563495,
          -0.28852929891652224,
          0.8214617367128696,
          0.014370728176571479,
          -0.5519048407137905,
          -0.869974933414627,
          0.4668327739882181,
          -0.09631184415098426,
          0.021760056393022698,
          -0.49973662064489854,
          -0.9487860758676301,
          0.38774799476627564,
          0.5635601273295823,
          0.10391854197237693,
          -0.3861062415098848,
          -0.9958277313782062,
          0.17626901769644343,
          0.5431197467404116,
          -0.5135466034435798,
          -0.6214526186644207,
          0.955379952188248,
          -0.031937195145471,
          -0.16962744676315022,
          -0.08666219815281284,
          0.4440189958130403,
          0.5444264501074887,
          0.9681361974854332,
          0.861518815167182,
          -0.045920983238536994,
          -0.5336553956365075,
          0.4812757342379248,
          0.885065905177878,
          -0.7424391693048009,
          -0.4019559349879409,
          -0.6508278243311554,
          0.9801811252681683,
          -0.46920667382667247,
          -0.2717948223504645,
          -0.43126646612439545,
          0.16287076578522175,
          0.6488683364396137,
          -0.6235867972606118,
          0.027192672185229978,
          -0.6841074051366012,
          -0.6159655798526622,
          0.3144564324780191,
          -0.14035231463715445,
          0.5609977083023597,
          1.10391102453723,
          1.356224603482813,
          0.3303020618646225,
          0.6969574515685314,
          0.3125103644488524,
          -0.15391369938988095,
          -0.7578430331321735,
          0.7776591326013623,
          1.0522550902422692,
          -0.10280105176492972,
          1.0136399279638817,
          0.2530862127089053,
          0.487963967253309,
          -0.5327419939556944,
          0.4834114509529519,
          -1.2607282804365079,
          0.4664982479002112,
          -0.10482007690676731,
          0.12734679407913152,
          0.15273200099702722,
          -0.9217536358495781,
          -0.12230978480509368,
          -1.3478252180562103,
          -0.9812238660844546,
          -0.6448515038915182,
          0.19931044055487704,
          0.43581472623579764,
          -0.2627855299542922,
          0.738597029812616,
          1.0089729677034935,
          -0.06888155722193519,
          0.3184680404890586,
          0.7319105504956432,
          -0.1690238409876225,
          -0.1739150561401731,
          0.9903720855714884,
          -0.4786563463394098,
          -0.048780841003988794,
          0.2991449690238879,
          0.2686271971894807,
          0.5491648844429776,
          0.7835917590188413,
          -0.943962480541485,
          0.06883601454241021,
          -1.2115981361029646,
          0.4083801852645621,
          0.6265334980075705,
          -0.8277245885879227,
          -0.562274219263942,
          1.0249512953520736,
          -0.03685608214423234,
          0.8429736601082812,
          0.02683542487985645,
          0.14859811277807322,
          0.7844989591491482,
          -0.12968609717011012,
          0.6921443379596944,
          -0.6467107130014155,
          -0.14991402452014493,
          -1.0537826846364906,
          0.8448734343716013,
          0.31760952178362367,
          0.44778676783337656,
          -0.3446984193875505,
          -0.695421245388235,
          0.8732283007636913,
          0.5315862289045261,
          -0.1340642324720373,
          -0.4047954312999689,
          -0.5544968969423831,
          0.5454036056728933,
          -0.008670079958212382,
          -1.494865741699253,
          -0.45075491457683636,
          -0.8219286550276528,
          0.9729515724435216,
          0.7955567981920937,
          -0.12228041601991874,
          0.14085302816252643,
          0.129256898584586,
          0.309886643206878,
          1.2517586563470744,
          -1.0517098138177012,
          -0.7446374219835092,
          -0.6700482261873915,
          -0.1930845780269073,
          -0.054887510254609126,
          -0.6556359719224876,
          0.5897324712856018,
          -0.2665539043508586,
          -0.02292228194078356,
          -0.2502608153062124,
          -0.8058121465671456,
          -1.0398647393445664,
          -1.468420364246444,
          -1.4500462984068612,
          -0.08566626439785346,
          -1.4880542821029303,
          0.937678792846524,
          0.13140394783160342,
          0.37522812253875126,
          -0.6760341875077494,
          0.36189948446960596,
          -0.7611363886741129,
          0.34162881549689716,
          -1.0781443362076601,
          -1.2866476033841294,
          -1.3842971205929013,
          -1.2024506451481571,
          -0.48451976263456625,
          -0.01946494324802332,
          0.2992399751125478,
          0.9082974077065022,
          -0.19831568328432542,
          -1.4310576708244576,
          -0.9245933714533585,
          -0.20967773097827502,
          1.3797489020077986,
          -0.6024938130371883,
          0.011392034145013337,
          -0.24726594481787853,
          0.7727270964501987,
          -0.7222119363965432,
          0.48818496642491677,
          0.6750654518429015,
          -0.40786491289798693,
          0.08432887164673948,
          -1.428502416442156,
          0.11727241714803467,
          0.24116213819482368,
          -0.9001425693978509,
          0.9524401240032838,
          0.7524783810982072,
          0.8167960842461864,
          1.4742213801112856,
          -0.8298031321778518,
          -0.7630111709170231,
          0.5199341853763566,
          0.03175690440999791,
          -0.3152693549856765,
          0.009730152204052078,
          1.0346773011326404,
          -0.8422278852651557,
          0.850882130465826,
          -0.11478503298376089,
          0.5472119602897841,
          -0.3784721461659964,
          0.3300207835655967,
          1.6791512769081314,
          -0.5741958134992774,
          0.532300649053718,
          -0.40774206154999554,
          -0.12170803948760796,
          0.24692629299645835,
          0.7962868018622982,
          0.015420031621812526,
          -0.8151839071397783,
          -0.7726434743181589,
          -0.07407908254002438,
          0.7266151221669457,
          0.21689634050649964,
          -0.7649372517159871,
          0.8586033649013123,
          -1.1416278881949773,
          -0.04141324715834577,
          -0.2717433410210462,
          -0.15199308026010938,
          1.7080367701587926,
          0.6485989266553234,
          1.491772203252752,
          0.17623371537584295,
          1.179179833376539,
          0.5099052516381889,
          0.7925231402075612,
          0.8562059620106356,
          0.5562510442330315,
          0.36566560517039076,
          0.2715060456092995,
          0.6326336067633046,
          -0.18086561154687625,
          -1.029058795053255,
          -0.5608043794513222,
          -0.25821755335465757,
          0.7327838738556901,
          -1.3929696604963375,
          0.36403440499896655,
          -0.6266500894514269,
          -0.49787074226778216,
          0.29226393522179395,
          -1.0580075912896971,
          -0.5204247662969007,
          -0.738378675222397,
          -0.8964631399696154,
          0.384378193052542,
          -0.4132202144900532,
          0.47014217978569295,
          0.20880206340399096,
          0.6358951849909659,
          1.6969535021213191,
          1.8498135505595172,
          0.4160556248162054,
          -0.06641641089661586,
          0.203540701340509,
          0.025521106730877124,
          1.041533992417079,
          -0.06107988400684088,
          -0.37459347041679614,
          0.4717943049050955,
          0.33349738883076585,
          -1.3926180245671984,
          -0.24687271395462668,
          -0.14557094943599208,
          -0.0844667990252005,
          0.19843686248412684,
          -0.20718110821718083,
          -0.381513190253449,
          -0.5354583103633872,
          0.46405117602980156,
          -1.1087045794422432,
          -0.048161491654674135,
          -1.2950323305515534,
          0.807286151472591,
          0.46368830022497437,
          1.7926139167054898,
          0.5253462373796178,
          0.53432526854849,
          0.0932336787226173,
          -0.11962322106580081,
          -0.2352943593373341,
          0.8530403556035914,
          -0.7388625898831744,
          -0.4158178952232943,
          -1.0731179529845822,
          -1.1199741598011181,
          -1.0335426668197962,
          -0.8106247778521175,
          1.54689388855432,
          0.02876191224215249,
          -1.3643006715337367,
          -1.0850788544099506,
          -1.1157893360920201,
          -0.012066331184654278,
          -0.031732557218157265,
          0.11280287425685076,
          0.5782230491865836,
          1.3983078190241993,
          1.2944488410136974,
          -0.8505767778783835,
          -0.6660668083423368,
          0.48942464188381185,
          0.660209749501899,
          -1.1208347347293874,
          -0.6181384740857603,
          -0.00014804374421389108,
          -0.6454270612067579,
          -0.2459707778895239,
          -0.25534070109935997,
          -0.15136721057307792,
          0.26938972156222385,
          0.14631689871172085,
          0.7713557491632507,
          0.7232370473659998,
          0.11193448841804554,
          1.483370533375016,
          0.47435163005528197,
          1.0146505397316559,
          -0.8024481201532403,
          -0.0028296501750707,
          1.2147653447115834,
          -0.2811267422662107,
          0.4124810949420219,
          -0.8331234477649554,
          0.40000273532861463,
          0.8667236897397018,
          0.6417316100702115,
          -0.20658338098061238,
          -0.3509302171346221,
          0.17461737712182293,
          0.2808161370158917,
          -0.20929480398147104,
          -1.268059079571079,
          -1.7446356946518247,
          -1.2885964840534336,
          -0.7570808785726869,
          -1.3839935459264359,
          0.021856721263866008,
          -1.4563083673078139,
          -1.4514212628736818,
          -1.2713568888765752,
          -0.6184325003849432,
          -0.9990577405594384,
          0.6368459060174062,
          -0.9851311154572429,
          -0.6965033993307496,
          -1.7672588714775321,
          -0.5153410291699347,
          -0.2159786227710221,
          0.2335377755960759,
          0.17791097234360453,
          0.4439923055101844,
          -0.4591614201951595,
          2.3477794460498145,
          1.1376844410130236,
          0.5431115128511274,
          0.1488454358647384,
          0.5705340156578756,
          -1.4264987204964847,
          -0.5182216586240348,
          -1.5175723882908971,
          -1.3568639946561787,
          0.6789924389168434,
          -1.7761543154867845,
          0.40025740175127145,
          0.07207007808016058,
          1.475465879561212,
          -0.5122421727474861,
          -1.7820398248430782,
          -0.1638505826289613,
          -0.2687491011847109,
          -0.5591629036106179,
          -0.10341908253119406,
          0.4226566185056334,
          0.1892113095788664,
          1.818059801200014,
          2.0879556723416806,
          -0.6872770300209701,
          0.5394330499096185,
          0.10045632889109113,
          -0.8050407607673153,
          1.6908549009773108,
          0.3025283719560234,
          0.6673415269461233,
          -0.5792755605993486,
          -0.7198079140607914,
          0.5086613777864762,
          -0.7160794519979685,
          -1.9013874131694046,
          0.32989120812884276,
          0.3338574568279037,
          -0.9472306799231837,
          -0.2325688111710556,
          -0.4006398517484845,
          -0.3891113488609835,
          -2.5003968643964267,
          -1.3950509060299199,
          -1.4963580522688529,
          -1.729618303870868,
          -1.084712771790999,
          -0.6666805120954141,
          0.2098825180865576,
          -0.9867859501965769,
          0.34034894011251215,
          -0.27270804635632145,
          -0.5811640682495121,
          -0.6362173239071978,
          0.3733684316048427,
          0.8853603452802656,
          -0.23622829977982585,
          1.0208015742221699,
          1.1018244281186462,
          0.2390971367089552,
          -0.7787001280794307,
          -0.28542689773663965,
          0.28954514805350084,
          -1.3087175255295183,
          0.967831231721757,
          -0.4529861532747308,
          0.2401500516819083,
          0.49625299071210094,
          -0.26176890365106703,
          0.19690165482018634,
          -1.4274766790903566,
          0.5154616720398008,
          0.4693824998449498,
          0.3056603913162934,
          0.1084386024670417,
          -0.3450779647197488,
          0.7508154797033517,
          0.020496656741787522,
          0.18487728337538287,
          0.7468654008065914,
          0.07677779123933703,
          -0.705273610074209,
          0.5932391653962852,
          -0.9634063439672769,
          1.059135027393308,
          0.8077052205848235,
          -0.8114169281671243,
          -0.41882354325831384,
          0.15261775801341856,
          0.1730864070145221,
          0.7073205907820949,
          0.9513563200436018,
          0.9633442084068137,
          -0.07374430344173094,
          0.6427368147877467,
          1.0754938990976592,
          0.26623118598516493,
          0.45712463768423656,
          0.4328362611036706,
          0.5243580047607594,
          -0.393306807313713,
          0.34795749839037965,
          -0.9595587860365107,
          -1.5703834873440843,
          0.38358314728777065,
          1.4641031247498961,
          -0.44761862052517454,
          0.6724359814355391,
          -0.7909791624330573,
          0.33036353456717693,
          -0.6137963515678209,
          0.3012426473763812,
          -0.1594329994740247,
          1.7810852849622458,
          0.17791085608516793,
          0.5635840064926679,
          0.447572370633278,
          0.1405844106305388,
          1.4678666821849573,
          1.315507773921734,
          -0.5455762814193957,
          2.055537646064668,
          -0.3592485091021089,
          0.7884881215930922,
          0.3673574664026483,
          1.1637623495909575,
          -0.036058210702066516,
          1.5092508103081028,
          1.112960863474025,
          1.2451207974619245,
          -0.44222537876926327,
          0.9526884644329247,
          0.3956196695920974,
          1.7818190025553233,
          1.9224869770075297,
          1.01073864021306,
          -0.8022844273755312,
          0.4752014849250652,
          -0.31318975756244694,
          -0.9736497622033191,
          0.8640422364127716,
          1.6352338347732134,
          0.8543336339423154,
          0.4239009368064969,
          0.7319665081521027,
          -0.022844420327573743,
          0.5717778921366276,
          -0.28115180503564946,
          -0.11664382254400904,
          0.37363253008994113,
          -0.8124634132312674,
          1.3546831432095514,
          0.36810847871435476,
          -0.978316119763675,
          0.22606083315654457,
          0.49013017448143453,
          -0.8023245640359353,
          0.7326559322389854,
          0.011267058746234479,
          0.6975233032548462,
          1.504841063026894,
          1.3172227834163575,
          1.8519138293150892,
          0.6653967621430046,
          0.32607237871562234,
          -0.14702668952255316,
          0.032744229429499505,
          -0.1277252373109321,
          -0.5006065646689868,
          1.5398917672425436,
          0.7085721146729872,
          -0.08028680810470869,
          0.7666216442333195,
          0.6755799079131589,
          -0.6205673066876387,
          1.3705966086428625,
          1.857218774808612,
          0.3189068405575486,
          -0.21791917806378963,
          0.16658710876261912,
          -0.009705228410244454,
          1.021794216800881,
          0.7090774462980455,
          -0.20330406591851677,
          0.22573631488890922,
          -0.5108419132114201,
          0.20704363807674725,
          1.1139205937435028,
          1.3975014428481067,
          0.6601342795955505,
          0.40125010331008526,
          -0.620243608774419,
          0.4294075603048624,
          -0.2847727313931063,
          -0.8988185212593871,
          0.5279776052775058,
          0.8959084528864467,
          1.706538469916895,
          0.20989515351446333,
          -1.1697751131192984,
          1.1717740163797352,
          0.7737090831711435,
          -0.2601144560660881,
          0.6024014518500248,
          0.6418850100059171,
          0.49079465191731814,
          0.4353017958735937,
          0.5733683944324414,
          0.1660263509859841,
          -0.16597979337273025,
          0.4976466034454276,
          -1.4493046103133724,
          0.17734599809447998,
          -0.3454512417196157,
          0.7415410142986655,
          0.4896867229831574,
          1.8683341529896802,
          1.5129505648846089,
          0.13131570123161773,
          -0.6558186067818854,
          0.9850393411535538,
          0.9044752419312561,
          0.3461855963099252,
          -0.4371313829681647,
          -0.7603372535714409,
          1.2475353923847203,
          -0.5420026627733919,
          -0.2582777996552929,
          0.22629851660751585,
          -0.9164896068324188,
          -1.262178954218158,
          0.1704305195008953,
          -1.323014691962681,
          -0.576911263876595,
          -0.08883446025008059,
          -1.5454098199912787,
          -0.6963545290175708,
          -0.7915294004900382,
          -1.1569634244558418,
          -0.8918736981623429,
          -0.21799138105047805,
          -0.1326274040769974,
          -0.42260543009668133,
          0.97613924101398,
          -0.07904057366462224,
          0.9152627377719348,
          0.6456566765348649,
          -0.8337163847516973,
          -0.25101385886766625,
          -0.09386205392218994,
          -0.9325973647568819,
          0.2196626432747757,
          0.2533506964819905,
          0.46976691674465515,
          0.6547972497235494,
          -0.6425649958869256,
          0.7493251877601269,
          0.5895243251085844,
          -1.0321125735664312,
          -0.09346529059665085,
          -1.1451717201620693,
          -1.5669049542906823,
          -1.2206261176978956,
          -1.7115325355399615,
          -1.46811456763735,
          -2.0242060045156443,
          -0.31559431418806955,
          0.5660228527633523,
          -0.6826764198683971,
          -0.22476013049418794,
          -0.02102928384719519,
          1.3117404099731433,
          0.31013881469524324,
          1.21792316232145,
          0.8146160796721253,
          -0.02144889592279867,
          -0.40429927933913445,
          -0.7086572641602866,
          -0.842801215671193,
          0.9496542893901356,
          1.0561619858256261,
          0.3132934164531276,
          -0.9639969889082509,
          0.8562507598058193,
          1.4288354223450281,
          0.1508572379396886,
          -0.7227828528963693,
          -0.7498828818080341,
          0.015061814045803746,
          -0.7173332512408329,
          -0.7740942757106234,
          -0.5133704811244935,
          -0.6669647176972654,
          -1.0067421528539668,
          -0.16762058978070812,
          0.0356824869541891,
          -0.18813176412572286,
          -0.7842760064697234,
          -0.9619297399220036,
          -0.40172388113916274,
          -0.6436095531934165,
          -0.6114279782189538,
          -0.3298145007782454,
          0.07622061646357092,
          -0.7661437417771317,
          -0.87894716798318,
          0.40555325287474897,
          0.19053343399985545,
          0.6356733366997057,
          -0.4280813720838562,
          -0.4244475917012289,
          -0.544637355744531,
          0.4286756085784894,
          -0.8727919070645741,
          0.576008731372222,
          -0.7426700453452655,
          -0.5954083156939919,
          -0.025991578981792347,
          -1.5211644746803559,
          -0.8409943252628271,
          -0.1991796848840623,
          -0.8160095075229105,
          0.2895927901087014,
          -0.6919259786619636,
          0.6005615205107099,
          0.05487528519380732,
          0.3991220119892084,
          -0.8599338350303103,
          0.2702546922253962,
          -0.4035776573483785,
          1.0677026750328344,
          0.745171463182413,
          0.638195227287615,
          -0.40009344259797874,
          -0.9087053324688998,
          0.06493420821004658,
          0.664232326016288,
          0.63359385122386,
          0.6072704492586608,
          -0.542221446135081,
          -0.38853601930334836,
          -0.3268710086392457,
          0.19052565185477452,
          -0.4669735590430667,
          -0.613691373441435,
          -1.8268933386888921,
          -1.443004682856043,
          -2.1056137526988623,
          -1.1021834083375204,
          -2.1223647512852657,
          -1.2949812026053809,
          -0.915666872532777,
          -1.046295153405942,
          -0.29586099899180396,
          0.3962134539100729,
          -0.743565298995471,
          -0.584795564128356,
          -0.08493909423844447,
          0.06982539353196089,
          0.8623544004054273,
          -0.6236619090460769,
          -0.035236443329061284,
          0.3430292315270478,
          -0.25428996989563846,
          0.5385897610538688,
          0.09996392511033925,
          0.35342023245140863,
          -0.4557842273514159,
          0.186220287586929,
          0.9184883012772413,
          -0.44542976773277765,
          0.12745550576440046,
          0.3485082334077494,
          -0.46148312823203197,
          -0.675100861219851,
          -0.2743134036602495,
          0.4560894510509401,
          -0.01658854318359282,
          0.9119284630114501,
          -0.9541388633479522,
          -0.9258034302769116,
          -0.9299595315585139,
          -0.18640842133174962,
          0.30658597491434314,
          -0.8433346577885401,
          -0.13125997125088906,
          -0.6790723035398041,
          0.33554242256596334,
          -0.7323108598183143,
          0.2483122567367797,
          -0.7134355072433505,
          -0.42946363763759265,
          0.5741840944087264,
          -0.10897828409646237,
          0.6328295268574755,
          -0.9296694602354618,
          -0.547775058181454,
          0.057835511416350016,
          -0.6120620825020806,
          -0.8861821365386162,
          -0.9774581810165794,
          -0.4384564649531395,
          -0.16995568644494874,
          -0.6695065427783478,
          0.9177777069085811,
          0.4691823452972699,
          0.8128196312965552,
          0.4330892296677358,
          0.5191589864804786,
          0.8659986516196829,
          -0.1637555885795492,
          -0.11494423020203293,
          -0.1045078254647005,
          -0.31448833233974405,
          -0.6503896621225222,
          0.6509997026772729,
          -0.03108346127931272,
          0.2369287470554795
        ],
        [
          -0.8748078473695169,
          -0.14487150019892558,
          0.6080872273573998,
          0.5660198711050564,
          -0.8955664551156524,
          0.42343627206731593,
          0.7864488063177619,
          -0.2988538638221141,
          0.9142776206795222,
          -0.5350426219091022,
          0.5662519996917719,
          0.2423015655751639,
          0.436239213390913,
          0.732963790203125,
          -0.8172558570387896,
          -0.6194095667355595,
          0.8665956940951598,
          0.4655066484643231,
          -0.6475180458249779,
          0.7232514117798114,
          -0.04790603338938837,
          0.9545002871926371,
          0.162895701049397,
          0.6519622183681788,
          -0.9156603092515616,
          0.3001152275341461,
          -0.8100743992885464,
          -0.38610149855524334,
          0.8545083363858126,
          -0.17619447919931375,
          -0.6698024281972805,
          0.46699245577940385,
          -0.7633455844498847,
          0.48738053062321685,
          -0.1702240015201184,
          -0.8932233210695681,
          -0.7497100163402397,
          0.7120554358986628,
          -0.04440629343398328,
          -0.2667675049211242,
          -0.4365080747121235,
          0.9885642337148979,
          -0.07995325007672882,
          0.03026271664819502,
          0.19204436108387846,
          -0.9357187566888938,
          -0.09843805079936763,
          -0.533970772307458,
          0.13605614906857388,
          -0.5134545373299013,
          -0.31682039017532393,
          0.14646648945267238,
          -0.6897132671652031,
          0.7739022579314687,
          0.7884800735220563,
          -0.8731846587300107,
          -0.9219846751819323,
          -0.9488618082372535,
          0.5631966875198641,
          0.30855647951931764,
          -0.5044826461676106,
          0.2525610258194398,
          -0.18983451887841282,
          1.098806269178641,
          0.49516081996121103,
          0.6020635258912079,
          0.7486690823449607,
          -0.05177374688520123,
          -1.1687407693799168,
          -1.24109802356084,
          -0.9709903752932069,
          0.04544188132506654,
          0.34554010758170206,
          -0.7609327632697084,
          -0.9145963348959665,
          0.6542185592512854,
          0.5200014051076254,
          -0.13775796696879858,
          0.10607140013179359,
          0.4799889063107117,
          -0.5657902774434951,
          -0.004627156563922278,
          -0.2685018778426138,
          -0.7762998967714108,
          0.23704144296405216,
          -0.04865360707985067,
          0.394808203827756,
          0.4331800732430994,
          0.3591152417354393,
          -0.18726778393436996,
          -0.56910999581617,
          0.6916117367654356,
          0.5710822584889963,
          0.8042153023701859,
          0.03882922019157366,
          -0.3332604516056744,
          0.3177606083189677,
          -1.4975866023856963,
          0.5439137997164712,
          0.6330600916251359,
          -0.8782749118124191,
          -1.132005760795135,
          0.43369370349783665,
          0.01732521932565713,
          0.8374964291921411,
          0.8491408575860052,
          -0.4994737457480688,
          0.30641243561858267,
          0.12800807750179663,
          0.08589230905856658,
          -0.2666353066944698,
          -0.5740620931439699,
          -0.40596600684970774,
          -0.06442331029150061,
          0.8238562161282901,
          -0.17404315279306837,
          0.9381040616938123,
          -0.26819861699540143,
          -0.4143340802979959,
          -0.05752053902339329,
          -1.317199127228167,
          0.6815541956603003,
          -0.023703399592222875,
          -0.036585224176714275,
          0.06923622395855952,
          -0.17889359974685456,
          0.5996005164263446,
          0.0872645649997817,
          -0.20188003801399623,
          -0.11319545259625398,
          0.7521843064703241,
          -0.009603946499676974,
          -0.7444317312864351,
          0.9310109355620309,
          1.0130323804737225,
          1.0036214426904568,
          0.22921747959424416,
          -0.9145543571332057,
          -0.9389440079134408,
          0.22617163644398008,
          -0.059903886668457584,
          -0.37644775634228855,
          0.2832609575105393,
          0.6329212660156961,
          0.34337571121669574,
          0.6207263115834725,
          0.6093037800055989,
          0.7390455110616424,
          -1.0994776694351143,
          0.3555674636984295,
          0.02137281653335163,
          0.151522955276251,
          1.1821066804357263,
          0.6912998631184984,
          0.7121706342766414,
          0.6364840294918102,
          -0.9760856190306281,
          0.9527570263673175,
          0.21445227843003628,
          0.13780862087659573,
          0.31462754105123314,
          0.6338881301818635,
          -0.13081613021914967,
          -0.47871904474724464,
          -0.9347273155744087,
          0.8392692640639047,
          -0.5893454764669435,
          0.964025791770347,
          0.62024641089821,
          -0.14736477180049734,
          -0.2170823962676536,
          0.5161775320452864,
          0.45294079737571014,
          0.184069731593451,
          -0.878833227635006,
          0.5999881269015017,
          0.12628093442418278,
          0.802252006608539,
          0.11368865105470516,
          0.034376559650527494,
          -0.4674396587254844,
          0.37800452971966,
          0.42419563289982765,
          -0.31546370050545564,
          -0.28217968985723835,
          -0.8371353014474524,
          0.6281774179720214,
          0.6818945195810084,
          -1.4818224256642991,
          -1.2553372966357834,
          -0.6323198986912173,
          -0.48042865063674967,
          0.17301929526656945,
          -0.37611167318514543,
          0.7433803365925997,
          -0.5819638085174548,
          -0.9648568789897496,
          -0.7982332332221236,
          -0.9171379741080654,
          -0.4255519733631921,
          -0.045356450401519026,
          0.3124584030862185,
          0.45185484746527615,
          -0.5767501959117994,
          -1.2969239063945948,
          -0.6503723428001884,
          0.8111992694785163,
          0.8757995623885015,
          1.3768382638830743,
          0.6331053509997256,
          0.48283712068809964,
          -0.48700573343018166,
          0.6734282467411031,
          -1.0865217847189723,
          0.3234837686272283,
          -0.7656527170794007,
          0.8779113128083974,
          0.6498221439360662,
          -0.8072470231242864,
          0.34168398259549904,
          0.1634638110225594,
          0.8632223941757791,
          0.583805780578444,
          -0.46539000508148165,
          0.21240307939474912,
          -0.8452980997273363,
          0.2762695280251345,
          0.7163628286100123,
          0.051608287530539754,
          -0.6634845121368683,
          -0.5339470196142538,
          0.6180970433351601,
          -0.27423008387242986,
          0.4918761964860682,
          -0.030584288313662,
          1.9412333712718504,
          1.6396346855363513,
          1.0265911817508904,
          1.0038613563178145,
          -0.28911762823237486,
          0.793810000708079,
          -0.45047960697500694,
          0.25543880695422966,
          -1.49655756117161,
          -0.8114859143481788,
          -0.16588641713214686,
          1.0568292144044258,
          -0.06869404485707395,
          1.277582888775782,
          -0.6617587317031564,
          -0.15309125675517654,
          0.8992301746549889,
          0.21404529000531003,
          -0.7752663002173454,
          0.5461224755967966,
          0.5151042885053781,
          -0.521466670755149,
          0.5296311982951605,
          -1.2256036814752276,
          -0.2990768681912041,
          1.0380211784096878,
          0.3577285865375955,
          -0.32621030633037407,
          -0.35284950127678105,
          -0.06411066476647642,
          0.7689966942082539,
          -0.526690678883003,
          0.2331430635113394,
          0.11928334625640404,
          -1.4450290476465353,
          -1.4734392460029266,
          -0.6988450041443491,
          -0.15263566551642238,
          -0.44167030782371647,
          -0.7770464733848964,
          -0.27962467595672613,
          -0.8265178965104527,
          -1.0474053225307383,
          0.7888787794728804,
          -0.34634612341886584,
          0.386741406123992,
          0.5570896020093321,
          0.3099459898085088,
          0.20892501798190097,
          0.13956161764838612,
          0.6555833399073838,
          0.9016911163181014,
          0.6413267422252733,
          -0.5841352932911085,
          -1.1489241480324541,
          -0.6286886056199624,
          -0.8942483003243007,
          -0.790962831036095,
          0.3505111342816147,
          0.1497424001069481,
          -1.3785961317074549,
          -1.1916273314653711,
          -0.6769971056099282,
          0.24268992858352342,
          -0.0975355568881296,
          -0.6947976017458011,
          -0.4907868312437543,
          -1.3750392907880582,
          -0.21344942963676555,
          -0.6624847347910967,
          -0.4258573542124622,
          0.47295074911254176,
          -0.5451853245951321,
          0.474732691868458,
          0.25963906178659224,
          -0.1426126534109174,
          0.07426600543850245,
          0.566746920418558,
          0.16418148362906712,
          0.3120919448898786,
          -0.7166430133428722,
          1.3055347312174963,
          -0.10663881540427662,
          -0.8482669799912703,
          -0.8938910860433111,
          -1.3180736386142797,
          0.28685707831204804,
          -2.0366978645673224,
          -0.633281439057015,
          -1.023020483369078,
          -0.7581858058085463,
          0.8675047647800129,
          0.17422297496136907,
          -0.7290324538326579,
          -0.0638697640084572,
          -0.03987751434642945,
          0.17011552602937713,
          -0.33811281842978264,
          0.22511158158617953,
          -0.020668189377619495,
          0.688765118196399,
          0.7597895303745221,
          0.19223228278386006,
          -0.957637844383281,
          0.43065713593025223,
          0.6159165260418431,
          -0.5827445212447122,
          0.060932158104170006,
          1.6008285145035575,
          1.284953799105511,
          -0.3017956151725091,
          -0.6915156136904511,
          1.0423154329405826,
          0.7803094767048206,
          -0.06044493294936542,
          -1.278996839036615,
          -1.8010938751295238,
          -1.0087659172558074,
          -0.07041125797499587,
          -0.13188259195964863,
          0.39609780336894457,
          -0.3732480645876704,
          0.23633229860597893,
          -0.06777810372896959,
          1.5844250488682674,
          -0.9874888093725608,
          0.9785330134305471,
          0.1856750166940011,
          0.906881079350585,
          0.8166025982600584,
          -0.08518590634622125,
          -1.2286654906253691,
          0.24415488267857788,
          -0.6580844399432685,
          -1.090052778768999,
          -1.2673394483725784,
          -0.5704679555133043,
          -0.815961970886429,
          0.25782629857921974,
          0.6685145973258435,
          0.14406604875476695,
          0.3908166706441015,
          -0.25399036159383026,
          -1.0145304234982173,
          -1.5413175623246917,
          -0.9366632673450734,
          -1.4096238119932407,
          -0.1827747307545874,
          -0.5096921829392477,
          0.08031622168374601,
          0.8897677061463455,
          -1.5374182116138961,
          0.16176978925135463,
          0.24124902142764437,
          -0.6732969026636351,
          0.9080719881624941,
          -0.7285622006803494,
          -0.4205018015004671,
          0.21244071763049677,
          -0.15336201580388079,
          -1.2755898672550166,
          -1.3764644122711793,
          0.08719074276623198,
          -1.153821328206295,
          0.22510811351976187,
          -1.1079515211156163,
          -0.7243520480168396,
          0.8889059332829257,
          1.084819691623673,
          -1.3459119405454736,
          -0.3758639902600516,
          -0.7658102054234474,
          0.08340255402902834,
          -1.3171073499349943,
          -0.10531661389371333,
          -0.22884829857117053,
          0.4582781478680812,
          0.8333015505404545,
          -0.36661463109526043,
          -1.6983816312507034,
          -0.6952998070577234,
          0.3636687216213905,
          -0.7348682859576549,
          -0.43305548816092676,
          0.2049283885266271,
          -0.22963269036801082,
          -0.06696496922177397,
          -0.21237083663423784,
          -0.32706587095033895,
          -2.208747403643866,
          -0.4046102335862713,
          0.2893046151122305,
          -0.6923835715575628,
          0.48388223192420987,
          -1.1071300739782846,
          -0.15866519499544973,
          0.8741617498688828,
          -1.1646809817528123,
          -0.4065798599461062,
          -1.2864636532779075,
          -0.40153406166135025,
          0.41934308250983293,
          1.617880568048777,
          -0.002819940585611364,
          -0.7896501493498084,
          1.2994009329275145,
          -0.3076640529465996,
          -0.3335453249515212,
          -1.5975451660237325,
          -0.06532665843330533,
          -0.18507164003864196,
          0.026107631628015326,
          0.7023830964463453,
          0.8932751798063943,
          -0.9454221303563686,
          -1.1114164021667567,
          -1.499484667323596,
          -0.8768645003468085,
          -0.46099239388115293,
          -0.7160318649453414,
          -0.32503723260250433,
          0.864599645221834,
          -0.6082519539773495,
          0.3342681369591126,
          -0.6639800107110758,
          -1.3892455418457972,
          -1.541152777159774,
          0.020802039228910302,
          -1.27473833458702,
          0.9270698585419119,
          0.7777097714433158,
          0.7604784014194929,
          -0.7441204733877791,
          -0.47727796839827785,
          -0.5272689067435083,
          -0.9667723077147596,
          -1.8958093817502581,
          -0.657936417742561,
          1.142216195232022,
          0.9727081614949373,
          -0.5080153716804068,
          -0.8624360972199581,
          0.6547517745497635,
          -0.5301838611183695,
          -1.223744627052431,
          -0.5755080324011507,
          -1.0698930561970994,
          0.025267717465154885,
          0.3445137661879816,
          0.2895369877549749,
          -1.5696051157163957,
          -0.05417594825481924,
          -1.4074411834983498,
          -1.4589964646823326,
          -0.44851213009987223,
          -1.2608944588471445,
          -0.25656713009964294,
          0.7962678894297383,
          0.17173401976326455,
          0.8659095755192127,
          1.4490747312418828,
          1.7183374304427284,
          -0.055473094319177046,
          0.3694799097026114,
          -1.8148370598264334,
          -0.820043139317999,
          0.8295774621739075,
          -0.9495360973802511,
          0.6998604432881512,
          -0.06326206770621079,
          0.5166040475678848,
          0.15683754239929307,
          -0.5412567833483858,
          -0.3337420281327918,
          -0.8382652266029162,
          -0.32144994613838923,
          -1.1404490947854693,
          0.560244001147514,
          0.9068929352278989,
          0.27737897773615355,
          -0.5988687538208304,
          -0.5225053403629663,
          -0.9123325366124685,
          -1.2444293388388217,
          -1.5286577602319027,
          0.37607018857257507,
          0.20169554388687738,
          1.1053417937089536,
          1.019125783145038,
          0.22264379700988796,
          0.5542593051863406,
          -0.004928327431250993,
          -0.036146724403793795,
          -0.6976182091897456,
          -0.6815743203499225,
          -0.2204076806645272,
          -0.7153948902067975,
          -0.2523948921953689,
          0.1949267119018816,
          -0.07762277246677105,
          -1.404869185890776,
          -1.0099296229729418,
          -1.6486155454444051,
          -0.9456372518514221,
          -0.4707166669485694,
          0.42528260876190555,
          -0.29346735191727313,
          0.3617110704072134,
          -0.6273823598356019,
          0.2892724277471482,
          0.3517407453909346,
          -1.131071239969326,
          -1.2267021610157314,
          0.80763561113148,
          -0.2507699942475714,
          2.165381304864621,
          2.2101755010630986,
          0.681113435441135,
          -0.5219278199498566,
          0.5121159083714937,
          1.195090787985451,
          -0.6453591020754544,
          -1.217111991796592,
          0.4241672999859252,
          0.5205807838857761,
          -0.17567703368636378,
          0.12776022728635716,
          -0.9556047235924542,
          -1.4786664760787072,
          0.44485572695803555,
          -0.016296571513006664,
          0.06579457828526604,
          -0.9437651732593182,
          -0.2875877736927607,
          -0.2981342985909717,
          0.30071556989984355,
          0.6215233289701186,
          -0.49462852539443614,
          0.09573312749605753,
          -0.21957083093944987,
          -0.5557021658606992,
          0.748773178716778,
          -0.07520142287166456,
          0.9370293878013619,
          0.7162210307066483,
          -0.006783552070339947,
          -1.5001235598776899,
          -0.45694339952452634,
          0.5197065939860095,
          0.136821207148715,
          -0.5555672014169694,
          0.887562162454596,
          -0.20554921947007365,
          0.8754504659654554,
          -0.2921774842253968,
          -1.2692719387359654,
          0.28393079378654457,
          0.3615075249193837,
          -0.11395841435258801,
          0.3905629216844299,
          1.5930857522100275,
          0.1253950318653024,
          0.10303813582169,
          -0.859028135336628,
          -0.2457266276452578,
          0.9982279182240704,
          -0.08079344319768168,
          -0.27475730628179446,
          0.2217874127966275,
          0.15298904468482094,
          -0.032551821310509085,
          0.5241562485550955,
          0.7588810916592382,
          -0.5764393232241204,
          -0.5212399875659128,
          -0.5050221463963688,
          -0.18184976837341926,
          -1.4969681806402615,
          -0.3237542273621784,
          -0.8800165929532073,
          0.8080437568575594,
          -0.5411789840556187,
          -0.4571081170205087,
          0.16676291886878636,
          -1.0738979344757928,
          -1.328004964864351,
          -1.3884813923490105,
          -1.2914835969762848,
          -0.44278204107622476,
          1.1049211824712422,
          0.10641766813175836,
          1.1521515894291257,
          -0.09450713472515151,
          1.5412285726951098,
          0.12204079978156114,
          0.20680733377356778,
          -0.07278117905427635,
          -0.4358332255850632,
          0.9231150041264093,
          1.44096219757206,
          -0.04204776052821243,
          0.5277115113873677,
          0.11813910631156775,
          0.07614517248071985,
          -0.6247346289802282,
          -0.42857553320769604,
          -0.8291694874473623,
          0.01713116369801737,
          -0.6937501668770825,
          0.28659010089458326,
          0.5547516985082925,
          -0.35961082092668906,
          0.42689337343318523,
          -0.7151024133108378,
          0.26236424958702603,
          0.4792758016277338,
          0.4073360760189709,
          0.4132422927877407,
          -0.29945277197960407,
          0.6370876115569668,
          -0.09888377947095972,
          0.15563850106522648,
          0.7037688569251669,
          0.9727585864576384,
          -0.09711140917512344,
          -0.3774716262010463,
          -0.18614295894770344,
          0.03970703540723205,
          0.2565787114560111,
          0.28616113177192826,
          -0.7439415037075218,
          0.5135289488645689,
          0.5244017563408733,
          -0.4193922900859533,
          -0.34311995058789113,
          0.017331648953002876,
          0.28624080377770333,
          -0.23423665336670219,
          0.09701235108338846,
          -0.017280697592230967,
          -0.5228663069531154,
          -1.0206283599708499,
          0.1981456277238411,
          0.8838896549403663,
          1.0232655122508503,
          -0.5795450785063054,
          -0.29044591123575425,
          0.9582098542910024,
          0.5795223534734959,
          0.9978735362847624,
          0.0700004933996392,
          0.3837137584178204,
          -0.6108920187269783,
          -0.1363635436635433,
          -0.3741325555360419,
          0.3200790471552765,
          0.11497540329026994,
          -0.3386826036704681,
          0.19931219100001893,
          -0.7489383477544408,
          0.8609453566383202,
          -0.6689370885213693,
          0.6519542997139307,
          -0.4211850810435114,
          -0.9896961147148753,
          -0.8025469016239244,
          -0.3539470931051558,
          0.10996025335215778,
          -0.6709386625272991,
          -0.40693314321339646,
          0.25294469221524435,
          -1.0817803172275022,
          -1.2982725805821431,
          -0.5920569112119948,
          0.7382245228148724,
          -0.5752838241232325,
          0.15807137034974927,
          1.0247959148348837,
          0.034779550778349586,
          2.257001651188485,
          1.2938377832215533,
          1.2068423607936667,
          0.1225794130313523,
          0.09851111592595328,
          0.4160250024991632,
          -0.10378270633663217,
          -0.24713507286460115,
          -0.23588371636601682,
          0.27385041997873705,
          0.19662322274050342,
          0.03612716759481219,
          -0.6859264345149505,
          -0.5291784845067484,
          0.7729349049040617,
          -0.8733804686013369,
          -0.6869907725695064,
          0.22507134537774887,
          0.27778985287762614,
          0.4018482083279471,
          -0.7492530197207574,
          -0.18718653177038824,
          0.8124930112894453,
          0.8385845167921935,
          0.2654098694385514,
          -0.7451180422737846,
          -0.09742261201272395,
          -0.6965383386136312,
          -0.04834671632988918,
          -0.1464252002995572,
          -0.4747838157183426,
          -0.41588893090543655,
          0.2684690166619794,
          -0.5413768718234118,
          0.2813914389624719,
          -0.7158804583058918,
          0.9660295210642267,
          -0.49066099637014604,
          0.9700678053765741,
          -0.8817201385000093,
          0.23870621390757218,
          -0.12622642659106464,
          0.7615306527715928,
          -0.3996232129012016,
          0.9730432789512484,
          0.664901112492458,
          -0.7788114046264671,
          -0.473280777923732,
          0.7844266251644503,
          -0.5626259884154057,
          -0.5558331205617684,
          0.07721698914091313,
          0.6180433017583566,
          -0.1775223764383771,
          0.9037299956827272,
          0.6548903670359487,
          -0.3295503950820824,
          0.5756355073975774,
          0.5605669876085924,
          -0.29064814314629217,
          -0.9089575794799369,
          0.5080150518834623,
          -0.565936568022571,
          -0.5812273592894703,
          0.92252158001103,
          -0.6105518468304121,
          -0.23391398250816087,
          0.43129441597185636,
          0.751107742193573,
          0.09808131643941387
        ],
        [
          0.5111531445468378,
          -0.8574346603157812,
          0.3968394711597587,
          0.6610671173902851,
          0.8318759316339333,
          0.4095004895268297,
          -0.5886055429260755,
          0.7375510620559433,
          0.6277671406072796,
          0.4013537740582733,
          -0.8047593869534024,
          0.8161883986127072,
          -0.232435566625822,
          0.6588188093854814,
          -0.4629347739942884,
          0.6908598821473859,
          -0.9869438135245834,
          -0.3741897252651478,
          -0.4366841077142736,
          -0.38163677682047714,
          -0.3024562909662669,
          -0.5327415041367458,
          0.21847819671203217,
          0.7767270238388884,
          0.33476825269938537,
          0.4187054598383235,
          0.2542151806832842,
          -0.14563716176069175,
          0.8842530818603649,
          0.21062541613898844,
          0.9001275533142707,
          0.3086585535222137,
          -0.047308641236234905,
          -0.4801662890446914,
          0.19891324830592128,
          -0.45774850381703525,
          -0.4469376552467095,
          0.9650175498370603,
          0.3489401507149874,
          0.095715011877187,
          -0.37684764046177444,
          0.8253031169333398,
          -0.7549946967156567,
          -0.4440537226961223,
          -0.9745544537853088,
          0.06659741413958598,
          -0.11516929182864866,
          -0.3819876398225408,
          -0.8384472923754069,
          0.5814298557621065,
          0.7786634540347044,
          0.043155353754583015,
          -0.4019028743373063,
          -0.623016602094276,
          0.516221224203842,
          -0.9452562431584615,
          -0.6661486777825338,
          0.8932776152379538,
          -0.1788568918636989,
          0.2778211139129625,
          0.7136736840664387,
          -0.917499735229608,
          0.2647785416511514,
          -0.03531813919337813,
          -0.7575078228357341,
          -0.28695968093828755,
          -0.5273737295571588,
          -0.43320555642106623,
          1.0048085373498736,
          1.2333015323138272,
          0.39593898604216127,
          0.7110937947562822,
          0.6553160306105138,
          -0.3091361201325146,
          0.47156336906401375,
          0.8009556539182523,
          0.712475535241702,
          0.20447335510360504,
          0.024853937667492193,
          -0.14900276269824633,
          -0.12403164785684782,
          -0.22121990951593462,
          -0.32029382771779646,
          -0.7241675662343758,
          -0.9466284638247622,
          0.5468954775502048,
          -0.6217173232818183,
          -0.10997716791591305,
          -0.12266140097491414,
          0.31062006512597856,
          -0.37300927142699974,
          0.3098113940333748,
          1.1854732783895463,
          0.7478497222072097,
          0.052680822950880724,
          -0.5947699282159723,
          1.0638982321799526,
          0.5280707798819414,
          0.3925441258748298,
          0.9359194247692721,
          0.6142355589955346,
          -0.43949549001005944,
          0.8100566775650717,
          0.22930262501086962,
          -0.6910024865352273,
          -0.08278542710395799,
          -0.4997203156803675,
          0.9342962156885162,
          -0.3707126184687867,
          -0.9701042843230169,
          -0.6561571539268867,
          0.37087668227106985,
          0.1847493842886716,
          0.06873171037685344,
          0.23092648687193013,
          0.19040846436669476,
          -0.2562454869710282,
          0.28115536921766177,
          -0.7215457587952161,
          0.060811760644126474,
          -0.1742056883839529,
          -0.6174304857703402,
          0.013930855634508308,
          0.209238372757114,
          0.26401393386689265,
          -0.2586527647834581,
          -0.2702603107339422,
          0.6206742236023128,
          0.9563666638158568,
          0.23929770422548455,
          0.7985460981427347,
          -0.3984480192945243,
          -0.5412723529192583,
          0.8215308592799518,
          0.6128276688796123,
          -0.0001885904394106187,
          -0.2593878777103982,
          -0.29626161543148377,
          -0.22702375082142146,
          -0.5874356641001643,
          -0.3207232944672027,
          0.5091733066975079,
          0.8558379964476228,
          0.3842011267595596,
          0.7154180834278544,
          0.24077484318411613,
          -0.9712754387705402,
          1.1360097863173098,
          -0.1683362589299182,
          1.0319326495585985,
          -0.7747999211279882,
          0.5423927878320053,
          -0.34678197041386893,
          0.4497161803803786,
          0.3289473897155079,
          0.38510263333316075,
          1.0539090118755627,
          0.10916453860100608,
          0.7209570883301931,
          -0.15774815011817636,
          -0.06350810700760323,
          -0.48188730753903347,
          0.7890018089585569,
          0.9873593629394586,
          0.790138149009922,
          -0.09316294295195895,
          0.08694294484874909,
          0.3079181400065547,
          0.9917511518307753,
          -0.9436387133951674,
          0.9104244839755203,
          0.7119882247859006,
          0.7534013998778769,
          0.18945311218489036,
          0.2514331111181695,
          -0.21811939296768554,
          -0.11893087471389947,
          -0.5826364805383166,
          -1.47327450659265,
          0.49817020587321,
          -0.7235536547483872,
          -1.1622197543741972,
          0.07126317906175114,
          0.6521656695660978,
          -0.8785524438067754,
          0.3539381437015317,
          0.08866213866112657,
          0.8815931198502125,
          1.0095718253366877,
          0.865564980173418,
          -0.35646099890855415,
          -0.9594308145515966,
          0.4236114243341438,
          1.125722666633023,
          -0.6630153058048842,
          0.930927315159082,
          -0.3265122079818643,
          -0.9739705004875732,
          0.32263727530094977,
          -0.12343469252053284,
          0.23610586777470788,
          0.3093152789525227,
          0.2631710232028937,
          0.06122648574438179,
          0.7545325814218344,
          -0.4663466272563467,
          -0.2619869239657492,
          -0.883685691871617,
          -1.6984963870526628,
          -1.2256708084120693,
          0.44259436539640734,
          -0.20365540639901955,
          -0.34822963036450755,
          -0.6419987125282871,
          0.9350572874647048,
          0.6437944909227532,
          -0.40563077837081113,
          0.8799671665646897,
          0.2914203909224428,
          0.47188263320902935,
          0.5291423142138229,
          -0.4594091878866151,
          0.7649169684368187,
          -0.7734482561371214,
          -0.22441849269184067,
          -0.06831359027871775,
          -0.23247632730821702,
          1.032436074748327,
          0.16428861386885005,
          0.04647599419685425,
          1.0966271259581504,
          -0.6921628840241324,
          -0.6076775573998234,
          0.20576496613582668,
          1.1455294740588209,
          0.29583955845986926,
          -0.38867776459761394,
          0.618234619450313,
          0.44027703804857105,
          -0.615553678320155,
          -0.5693829596617028,
          0.8553407667048774,
          -1.303241033816236,
          -1.190663789844037,
          -0.599327317562993,
          -0.18948347726635478,
          -0.06493390850017537,
          0.30591491207600013,
          -0.06675415498543281,
          0.7650614812519262,
          0.5132504110715645,
          -0.3874602117611641,
          -0.37577468138126147,
          0.26335826535273865,
          1.7317876975498459,
          0.6731379977249824,
          -0.11742800806790644,
          1.7499701381089994,
          0.24898445931364604,
          -0.5070956858244082,
          -0.004978036850346826,
          0.6738428985847461,
          -0.20840331968799305,
          -0.12923119471756356,
          0.5848674948162282,
          0.07640584697215393,
          0.15150669737779246,
          -0.013711814903941529,
          -0.15358969076112627,
          0.9169227856370119,
          -1.3628103099941324,
          -0.8479938930261941,
          0.6997964526382661,
          -0.3511296921251887,
          0.5622781701333112,
          0.7391059119340264,
          -0.7114625372898971,
          -0.38572251443955463,
          -0.3357419460566873,
          -0.8736450517418843,
          0.1090549909265417,
          0.8894156031381844,
          -0.03612084930466345,
          1.0075745931734414,
          -0.12270183696724021,
          -0.5972864318223797,
          -1.0356745982030315,
          0.6514559416971021,
          -0.6437291991085345,
          -0.7083974647501565,
          -0.15937847057584142,
          -0.10664177916219895,
          1.0043340184430267,
          0.6001989327929005,
          -0.7573535226476901,
          -0.07644950828478049,
          0.398501398002129,
          -0.8298418397269998,
          -0.6259326532743086,
          -1.0555739921441514,
          0.6293437214231397,
          -0.24931518244924156,
          0.24379569721899294,
          0.08817835917201697,
          0.8646233127281034,
          1.1920139003645962,
          0.007002817436459807,
          0.6009826467974682,
          -0.3902800064429357,
          -0.30864528324401874,
          1.5263306979164244,
          0.7569493569166432,
          0.29834990767872466,
          0.12003982683635869,
          1.0237769602621254,
          -1.0082505401559358,
          -0.4258045852240609,
          -0.3191149615328045,
          1.0852143801001366,
          1.00954479153271,
          -0.2705708248714891,
          -1.1992033063388754,
          0.5069490328365963,
          0.11224589131127569,
          0.36520748615620274,
          0.702337665405066,
          -0.19623378838713268,
          1.2538340427489378,
          -0.05996754432039826,
          -0.020081714232752144,
          0.1575613849399842,
          0.11225512625575843,
          0.6675267811688008,
          1.1433176815015442,
          -0.9633619572526104,
          -0.1367793246165241,
          -0.5431131564910721,
          0.364001269055656,
          1.0403028740848215,
          0.959546218080346,
          0.9773542627357159,
          0.19620526803684696,
          1.1909814541132953,
          0.6927739176700425,
          0.525535261452486,
          0.2156091168121465,
          -0.5114348882633848,
          -0.10045330493290437,
          0.014855146800319926,
          1.0645477631209492,
          0.7691164218502917,
          0.21244473776493997,
          0.4474675944101811,
          0.4104658407895647,
          -0.19547618745367779,
          -0.026381592119451694,
          0.38449589205794266,
          0.6849950319529262,
          -0.7064003815294225,
          0.05863761181302217,
          -0.5836788737780502,
          0.6880163062653326,
          0.19139198864758677,
          0.139061369477274,
          -0.7447650049843215,
          0.9862182879422665,
          0.2148879276873507,
          -0.050579469213570066,
          0.6887876416607583,
          -0.08633363457715426,
          -1.176866775508175,
          0.7991841790092526,
          0.0036395627277301863,
          -0.27467146195393555,
          0.1536407393082858,
          -0.47209467473998457,
          -0.18465266985260875,
          0.21631339710110217,
          1.7156128694427968,
          0.9531512926863867,
          1.0304726263464004,
          0.5315728082028155,
          0.8691580826944993,
          -0.38743803109358765,
          0.32758454088565253,
          -1.4891690362869818,
          0.8405491703037962,
          0.18917418527869376,
          0.5032297406890576,
          -0.1796629396286441,
          -0.3974678649184682,
          -0.8912495592998373,
          0.8763157584451187,
          0.865509766190105,
          -0.1162859542712655,
          -0.7058403844062099,
          -0.3959276618234907,
          1.2256600433698384,
          -0.646407552176975,
          0.3400362870651253,
          0.8801042478557763,
          1.5677492435591986,
          0.9542446570197664,
          0.0029573452702730627,
          -0.6846020347952848,
          0.9407473490051375,
          0.2984767847212639,
          1.1256240831064483,
          -0.11652759117922983,
          -0.5009829434122994,
          -0.8927023893810487,
          0.35274876085946316,
          -0.9806588265380121,
          -0.3701089381957826,
          0.5944544624972299,
          1.1082085358570521,
          -0.41385998088821846,
          0.9162843634968318,
          -0.6939743436420573,
          0.8844604895422012,
          -0.17198449384211267,
          0.2489509648567796,
          -1.8809919696167854,
          0.6031051538188034,
          -0.7480214355923394,
          -0.42870748742073006,
          1.264118271760963,
          0.13835472116988334,
          1.1198359958497568,
          0.8415813327709507,
          -0.6940581061020822,
          -0.3125780968321147,
          0.41499914266069815,
          -0.06916810444696293,
          0.7840611329288746,
          0.8508531395161336,
          0.14365339259910626,
          -0.8700397825251406,
          0.9398737140936713,
          0.6861391812661767,
          0.8195921260087189,
          0.8668143676454897,
          0.011255499983931506,
          0.44708120233970977,
          0.7432198761988013,
          -1.859640108415667,
          -0.05005505230537288,
          -0.29472633503602763,
          0.6080922912961686,
          0.29617123536860435,
          0.25464850988947535,
          -0.25282863245824017,
          0.01712860219387027,
          -0.8544490112098475,
          -0.2822485773041896,
          -0.026381394281033223,
          -0.8237340185663504,
          -0.4081125202689218,
          0.237257288837044,
          0.6330108018040179,
          0.18123180455680854,
          0.1635308551157562,
          0.6723258639184145,
          0.09258432503313901,
          -0.002671698211139061,
          -0.11014459936732689,
          -0.39580628324262296,
          0.46635224637564515,
          -1.4504915771416935,
          1.6280435376259934,
          0.943844969128292,
          -1.0266461994727132,
          -0.4633971744636299,
          -0.2956196375044711,
          0.888452439965246,
          -0.4650585897029407,
          0.6422177329234384,
          -0.11731746167351043,
          0.07594383075188241,
          0.3584109914558503,
          -0.6204755284960409,
          0.022198289129362444,
          0.6441939196797399,
          0.8151997455626432,
          -0.8209107819933879,
          0.4993917693811834,
          -0.9474778358074574,
          0.15958365538403807,
          -0.8489081614149404,
          -0.8938763861085647,
          -1.1070974613437907,
          -0.7954421931074369,
          0.8469897181615685,
          0.5773890833013273,
          0.9042876705727405,
          0.265084091703964,
          -0.17760055340679573,
          -0.9148908784291709,
          1.1875873843228428,
          0.6657664136800536,
          -0.5508439636611785,
          -1.238511165352717,
          0.9310029592764018,
          0.8744092180961505,
          0.8710198325357119,
          -0.1272498526106829,
          0.7147058398808447,
          1.2054236163225625,
          -1.0074687289864677,
          -1.3582494266708247,
          -0.08030724151483896,
          -0.21774729188998312,
          0.31142619793492093,
          0.023172864180315056,
          -0.22865660981546534,
          0.02720914437674196,
          -0.7793847356164417,
          -0.8610819933562256,
          -0.6957415629365662,
          -0.06794659504673123,
          -0.5288491001433834,
          -0.05223416510411166,
          1.8074281804303665,
          -0.43287346091797485,
          -0.6838600113388525,
          0.08047679590644005,
          -1.2464154690260683,
          0.5816400191988863,
          0.8103107882060301,
          0.16069843254357125,
          0.07522982960613511,
          0.11386503466590536,
          0.23415579906876083,
          -0.41043082614133386,
          -0.15354016755625335,
          -0.274567441728288,
          0.5694813754361036,
          -0.36800963165906464,
          -0.5481935060730792,
          0.7137523818244903,
          -0.20793306216937726,
          0.04483082392859905,
          0.0763701834660283,
          0.20418467787996697,
          -0.2876329544349279,
          -0.20038022023459115,
          0.8372459844363527,
          0.6615845319522802,
          -1.0574111466092597,
          0.7397556052562015,
          0.5184633408707022,
          0.14964293099062312,
          -0.563244873087773,
          -1.0717281487398687,
          -0.48796308667031024,
          0.7871964113245206,
          0.9868194699754458,
          0.7900257200921191,
          0.5908006520555129,
          0.6682128410521999,
          -0.4192246605582133,
          -0.6062782577207373,
          0.31668488210154166,
          -0.6665155637814825,
          0.9253691726711257,
          0.8938479827841873,
          0.5018785624144652,
          -0.9197893687991638,
          -1.360775555604014,
          0.6546287918803603,
          0.5671480744711087,
          0.7225632884127333,
          -0.6561573321059598,
          0.29766913035537573,
          -0.9346888362679809,
          0.6767330988928035,
          -0.5472396057549902,
          -0.7416628675424961,
          0.20616946751021742,
          -0.5033593419852224,
          0.7160266703848593,
          -0.11009831217287612,
          0.7885302526021662,
          -0.7286445911788976,
          0.7521866775876525,
          0.239238660827263,
          0.7086677561597541,
          -0.4894700274347876,
          0.21351790495248446,
          -0.649824389375155,
          -0.9823357305883476,
          0.05122415437981868,
          -0.4140795001070334,
          -0.3869470943592279,
          -0.37250867230389184,
          0.5960354890066043,
          -0.7623871842104075,
          -0.5232416138570588,
          0.6129632108197688,
          -0.1903148550590349,
          1.4446951329188595,
          -0.7952087968370126,
          -0.328670041961196,
          0.6413623338873287,
          0.6892401248841242,
          0.5819954944013904,
          -0.17060542340984655,
          -0.362873008990385,
          0.35623566626780495,
          -0.21125705411209436,
          0.32257840731711646,
          1.5045678429141818,
          0.11885216664951546,
          0.27237259942895004,
          0.5993832723091601,
          0.6039863069474314,
          -0.3326346086259746,
          -0.825838671611764,
          0.6275118219065936,
          0.9416198803770275,
          1.2474578187941778,
          -0.03638804658482798,
          0.7349459838924538,
          -0.9399788018304125,
          0.2306498848781294,
          -0.680652315732804,
          -0.5481817871848498,
          0.6957312366224307,
          0.3900714051602909,
          -0.614272258431846,
          0.851689261668748,
          0.15099723059583683,
          -0.49926383912197037,
          1.1407227199896177,
          -0.507129263586539,
          -0.789167927657294,
          0.7076121389770448,
          0.66291197311329,
          -0.7587612634729872,
          -0.09929103715164612,
          0.4830683916000528,
          -0.0800696152421627,
          0.011753143268837363,
          -0.9036093059810115,
          -0.49525194121650484,
          0.2517919363145258,
          -0.6481815220788587,
          0.13072764040014634,
          0.14974060186557317,
          -0.31078653760704117,
          -0.22696813752161366,
          -0.5938077481458344,
          -0.19772888714442038,
          0.35866036994497436,
          1.2377860081075274,
          -0.3423006067773702,
          -0.6251589895684289,
          0.3794595625474915,
          0.458430813228611,
          -0.4513099672092334,
          -0.5306231992828305,
          0.2762585507672467,
          -0.3911618610933104,
          0.43290749873318707,
          0.32771999688971915,
          0.6805900720001311,
          0.2239572817155934,
          -0.8358792668446305,
          0.20793729640632488,
          1.29483404787911,
          -0.6776061825908344,
          0.1711116442724392,
          -0.33777978235888684,
          0.9460552262514117,
          1.0986951702163332,
          0.17908701813158528,
          -0.4489353101959937,
          -0.807589610838522,
          0.5046063327857107,
          0.06487141419886733,
          0.032483374681242044,
          -0.6884787173026414,
          -0.7038899677293939,
          0.7525383548934087,
          -0.38353676113632607,
          -0.6519417291594515,
          0.8144192498012763,
          0.9419984245144728,
          -0.25022896629884445,
          1.0812510911688784,
          -0.8735994400787446,
          0.6253043920518069,
          0.7119820211444738,
          0.9007671604080495,
          -0.43373030201307955,
          -0.9958366133444752,
          0.6807092367434525,
          0.7576607777224784,
          -0.6306506978389352,
          0.414024149325638,
          0.9013091110618618,
          -0.8086318076883887,
          -0.8922106724131708,
          0.22417107801052247,
          -0.008898600554020126,
          0.7033082431322984,
          0.2201601531589106,
          -0.6423704336688635,
          0.22905066992044001,
          0.3515073901016339,
          0.6609758298225238,
          0.09421408562285252,
          0.3405271166314896,
          0.6434542880680856,
          -0.6600887591501814,
          0.7483359731715471,
          -0.7888471712067114,
          0.6635476543416922,
          -0.33968438060572875,
          -0.20900847225879202,
          0.3219134764775435,
          0.868738597848248,
          -0.45282787221924664,
          0.32221234033502444,
          0.7964876771200629,
          0.41338467735746226,
          -0.7149046798336189,
          0.4082141264560062,
          -0.6186724594398947,
          -0.04522657513264905,
          0.9822482385325015,
          0.13062765375217467,
          -0.2626652239016849,
          0.21462758409361404,
          0.48144590176685487,
          -0.44843068695195365,
          -0.5114400929868141,
          0.4161107068205583,
          0.9635835742694385,
          -0.739262954061437,
          0.4146629414558718,
          0.23422218273771156,
          0.3502219954874244,
          0.9857949754239459,
          0.02729793034362782,
          -0.40279145433460695,
          -0.39157449925665855,
          0.3421851791101589,
          0.3254552628083891,
          0.6841425504163605,
          -0.5326058213438136,
          -0.4015127114502621,
          -0.6184658337204079,
          0.23635217738706338,
          0.42831566210063077,
          -0.736227742103047,
          -0.20234371625127423,
          0.40050672422964206,
          0.546700969922123,
          0.9923960061257686,
          0.33702458615555475,
          0.5475431850082537,
          0.9385153251606866,
          0.8692647977174848,
          -0.5273673132964332,
          -0.18949229594015504,
          0.2675275746731698,
          0.7009532714449205,
          -0.1296069427054638,
          0.7286563921556377,
          0.3277213833027006,
          -0.4176465885359604,
          0.7157886558227284,
          -0.5365176999209229,
          0.805901296357252,
          -0.2685750705000154,
          0.29484656361919503,
          -0.3404148404373424,
          0.5142240971422605,
          0.5557981306756039,
          -0.5690137875610346,
          0.4901350277438654,
          -0.22207206745815222,
          0.9095586753636802
        ],
        [
          -0.03154112767718287,
          0.4653194435734247,
          -0.585322389911592,
          -0.29454306807157016,
          0.2797147748852975,
          -0.7696242584012358,
          -0.27020647763579886,
          -0.6584426353905037,
          -0.058953986830823535,
          0.9757286749393246,
          -0.47621469981196585,
          0.7057379239487598,
          0.07527949007803114,
          0.02473802945281367,
          0.00843585618792897,
          0.13191236822036467,
          -0.2202671894604573,
          0.7833850601792616,
          0.02940035265273222,
          0.6735882030280127,
          -0.9640242295510149,
          0.7007095916862127,
          -0.47267756021342455,
          -0.9516662090314956,
          -0.11547798997834846,
          -0.32790538569405925,
          0.870294280680926,
          0.16890386956229975,
          0.7459196201566534,
          -0.37138960270925203,
          -0.45816283455256057,
          -0.223462233053485,
          0.5324501712757086,
          0.7801769418811118,
          0.5644478646728048,
          -0.4236208478474408,
          0.9344524055685937,
          0.370250241128518,
          0.9949092041988168,
          0.8462519016343348,
          0.10625806317330966,
          0.7592979678619756,
          -0.9339298262576308,
          -0.84190726515856,
          0.6158949906137918,
          -0.9116619064916347,
          -0.7550430644703074,
          -0.21979940702475265,
          0.7180403838270064,
          -0.07074241454907249,
          -0.06904295627973145,
          -0.9486014775018985,
          -0.48452492032610905,
          -0.8609894899269737,
          0.42559573639955905,
          0.6213420408112462,
          0.8510068851619361,
          0.03974548583063919,
          0.087278376058879,
          0.6502802134336206,
          -0.7725094380462842,
          -0.6349115963876791,
          0.01691899187942488,
          0.839364381236202,
          0.3388449364603486,
          -0.08098902326247939,
          0.9454002111937077,
          -0.04236519814653068,
          1.2888187861177718,
          0.334764051318005,
          -0.056188097406981344,
          0.18458098205451184,
          0.9773009246456539,
          0.6775103928261619,
          0.4436102115416647,
          0.3681133203180907,
          0.7288011667724309,
          1.2702393413656494,
          1.3342366571512956,
          1.5794157385496836,
          0.5391980027841334,
          0.25946021496658417,
          -0.8698305778510647,
          0.04885792918247489,
          -0.5462060747804816,
          -0.33935167568664815,
          0.8185502127407434,
          0.7241478299504489,
          0.8378908291113746,
          0.4255055382748381,
          0.41109840153559457,
          -0.1917868094887404,
          -0.061770039429020554,
          1.252507699000317,
          -0.1360810626480055,
          1.0500411620749244,
          -0.6702368056274438,
          0.4161171026642336,
          0.537989928391096,
          -0.6057789457708599,
          -0.42768270247110995,
          0.10894347422876492,
          0.7197616622287909,
          0.08871285070677985,
          -0.3574135281219118,
          0.3530256961573594,
          -0.57977342085814,
          0.6663821243208646,
          -0.6569022322146493,
          0.7847985988448036,
          0.1618855749604986,
